<?xml version="1.0"?>
<opencv_storage>
<cascade>
  <stageType>BOOST</stageType>
  <featureType>HAAR</featureType>
  <height>24</height>
  <width>24</width>
  <stageParams>
    <boostType>GAB</boostType>
    <minHitRate>9.9500000476837158e-01</minHitRate>
    <maxFalseAlarm>5.0000000000000000e-01</maxFalseAlarm>
    <weightTrimRate>9.4999998807907104e-01</weightTrimRate>
    <maxDepth>1</maxDepth>
    <maxWeakCount>100</maxWeakCount></stageParams>
  <featureParams>
    <maxCatCount>0</maxCatCount>
    <featSize>1</featSize>
    <mode>BASIC</mode></featureParams>
  <stageNum>16</stageNum>
  <stages>
    <!-- stage 0 -->
    <_>
      <maxWeakCount>4</maxWeakCount>
      <stageThreshold>-2.1160900592803955e+00</stageThreshold>
      <weakClassifiers>
        <_>
          <internalNodes>
            0 -1 16 3.2818492501974106e-02</internalNodes>
          <leafValues>
            -9.6738022565841675e-01 4.3548387289047241e-01</leafValues></_>
        <_>
          <internalNodes>
            0 -1 40 3.9992355741560459e-03</internalNodes>
          <leafValues>
            -9.0058588981628418e-01 5.7968741655349731e-01</leafValues></_>
        <_>
          <internalNodes>
            0 -1 52 -6.5247863531112671e-03</internalNodes>
          <leafValues>
            6.7244148254394531e-01 -8.6137813329696655e-01</leafValues></_>
        <_>
          <internalNodes>
            0 -1 49 -4.5271962881088257e-03</internalNodes>
          <leafValues>
            6.1582463979721069e-01 -7.8960996866226196e-01</leafValues></_></weakClassifiers></_>
    <!-- stage 1 -->
    <_>
      <maxWeakCount>4</maxWeakCount>
      <stageThreshold>-1.9415049552917480e+00</stageThreshold>
      <weakClassifiers>
        <_>
          <internalNodes>
            0 -1 0 4.3612793087959290e-02</internalNodes>
          <leafValues>
            -9.1059279441833496e-01 5.5263155698776245e-01</leafValues></_>
        <_>
          <internalNodes>
            0 -1 22 -1.9035851582884789e-02</internalNodes>
          <leafValues>
            2.5994598865509033e-01 -9.0188282728195190e-01</leafValues></_>
        <_>
          <internalNodes>
            0 -1 75 -7.8217536211013794e-03</internalNodes>
          <leafValues>
            6.1068284511566162e-01 -6.4921706914901733e-01</leafValues></_>
        <_>
          <internalNodes>
            0 -1 34 -3.4012976102530956e-03</internalNodes>
          <leafValues>
            5.8224856853485107e-01 -6.4164096117019653e-01</leafValues></_></weakClassifiers></_>
    <!-- stage 2 -->
    <_>
      <maxWeakCount>4</maxWeakCount>
      <stageThreshold>-1.8076395988464355e+00</stageThreshold>
      <weakClassifiers>
        <_>
          <internalNodes>
            0 -1 11 1.0183550417423248e-01</internalNodes>
          <leafValues>
            -9.1295748949050903e-01 2.9787233471870422e-01</leafValues></_>
        <_>
          <internalNodes>
            0 -1 33 -9.3571916222572327e-03</internalNodes>
          <leafValues>
            5.1514828205108643e-01 -7.7446717023849487e-01</leafValues></_>
        <_>
          <internalNodes>
            0 -1 7 -5.3286331240087748e-04</internalNodes>
          <leafValues>
            5.5246192216873169e-01 -6.2014347314834595e-01</leafValues></_>
        <_>
          <internalNodes>
            0 -1 47 -1.6204556450247765e-03</internalNodes>
          <leafValues>
            5.5129623413085938e-01 -6.7267686128616333e-01</leafValues></_></weakClassifiers></_>
    <!-- stage 3 -->
    <_>
      <maxWeakCount>5</maxWeakCount>
      <stageThreshold>-2.1270456314086914e+00</stageThreshold>
      <weakClassifiers>
        <_>
          <internalNodes>
            0 -1 6 4.1980560868978500e-02</internalNodes>
          <leafValues>
            -8.9912706613540649e-01 4.3243244290351868e-01</leafValues></_>
        <_>
          <internalNodes>
            0 -1 21 -5.7259174063801765e-03</internalNodes>
          <leafValues>
            2.3330874741077423e-01 -8.4023630619049072e-01</leafValues></_>
        <_>
          <internalNodes>
            0 -1 61 4.8576664994470775e-04</internalNodes>
          <leafValues>
            -9.8437559604644775e-01 1.6844038665294647e-01</leafValues></_>
        <_>
          <internalNodes>
            0 -1 35 -4.7976046334952116e-04</internalNodes>
          <leafValues>
            2.3480802774429321e-01 -8.5220122337341309e-01</leafValues></_>
        <_>
          <internalNodes>
            0 -1 63 -7.7331368811428547e-04</internalNodes>
          <leafValues>
            3.3569353818893433e-01 -7.9093062877655029e-01</leafValues></_></weakClassifiers></_>
    <!-- stage 4 -->
    <_>
      <maxWeakCount>5</maxWeakCount>
      <stageThreshold>-1.8849446773529053e+00</stageThreshold>
      <weakClassifiers>
        <_>
          <internalNodes>
            0 -1 29 -3.3318869769573212e-02</internalNodes>
          <leafValues>
            3.5064935684204102e-01 -8.9688718318939209e-01</leafValues></_>
        <_>
          <internalNodes>
            0 -1 23 1.7301926389336586e-02</internalNodes>
          <leafValues>
            -8.0561608076095581e-01 2.6099142432212830e-01</leafValues></_>
        <_>
          <internalNodes>
            0 -1 40 2.7453028596937656e-03</internalNodes>
          <leafValues>
            -7.0815420150756836e-01 3.4317716956138611e-01</leafValues></_>
        <_>
          <internalNodes>
            0 -1 36 -9.0070083388127387e-05</internalNodes>
          <leafValues>
            2.5923234224319458e-01 -8.2422637939453125e-01</leafValues></_>
        <_>
          <internalNodes>
            0 -1 43 1.9207790493965149e-02</internalNodes>
          <leafValues>
            2.6648047566413879e-01 -9.3726915121078491e-01</leafValues></_></weakClassifiers></_>
    <!-- stage 5 -->
    <_>
      <maxWeakCount>5</maxWeakCount>
      <stageThreshold>-1.6687767505645752e+00</stageThreshold>
      <weakClassifiers>
        <_>
          <internalNodes>
            0 -1 5 -5.2846461534500122e-02</internalNodes>
          <leafValues>
            3.1506848335266113e-01 -8.8953489065170288e-01</leafValues></_>
        <_>
          <internalNodes>
            0 -1 69 -3.7387955933809280e-02</internalNodes>
          <leafValues>
            6.3679790496826172e-01 -6.7828446626663208e-01</leafValues></_>
        <_>
          <internalNodes>
            0 -1 44 -2.1086223423480988e-03</internalNodes>
          <leafValues>
            4.7691801190376282e-01 -7.1563887596130371e-01</leafValues></_>
        <_>
          <internalNodes>
            0 -1 56 -5.6619138922542334e-04</internalNodes>
          <leafValues>
            3.5462495684623718e-01 -8.1139868497848511e-01</leafValues></_>
        <_>
          <internalNodes>
            0 -1 57 2.7818214148283005e-03</internalNodes>
          <leafValues>
            -8.9637720584869385e-01 2.6005658507347107e-01</leafValues></_></weakClassifiers></_>
    <!-- stage 6 -->
    <_>
      <maxWeakCount>5</maxWeakCount>
      <stageThreshold>-1.8668899536132813e+00</stageThreshold>
      <weakClassifiers>
        <_>
          <internalNodes>
            0 -1 15 1.9748821854591370e-02</internalNodes>
          <leafValues>
            -8.7931036949157715e-01 3.7704917788505554e-01</leafValues></_>
        <_>
          <internalNodes>
            0 -1 8 4.6054753474891186e-03</internalNodes>
          <leafValues>
            -7.9393333196640015e-01 2.8042992949485779e-01</leafValues></_>
        <_>
          <internalNodes>
            0 -1 58 -6.9624825846403837e-04</internalNodes>
          <leafValues>
            1.8439586460590363e-01 -8.8561499118804932e-01</leafValues></_>
        <_>
          <internalNodes>
            0 -1 51 8.8149926159530878e-04</internalNodes>
          <leafValues>
            -7.2563797235488892e-01 2.7283981442451477e-01</leafValues></_>
        <_>
          <internalNodes>
            0 -1 45 6.2454346334561706e-04</internalNodes>
          <leafValues>
            -6.4882725477218628e-01 3.4759578108787537e-01</leafValues></_></weakClassifiers></_>
    <!-- stage 7 -->
    <_>
      <maxWeakCount>5</maxWeakCount>
      <stageThreshold>-1.7634669542312622e+00</stageThreshold>
      <weakClassifiers>
        <_>
          <internalNodes>
            0 -1 62 -8.2340799272060394e-02</internalNodes>
          <leafValues>
            1.3333334028720856e-01 -8.9359605312347412e-01</leafValues></_>
        <_>
          <internalNodes>
            0 -1 9 1.3795971870422363e-02</internalNodes>
          <leafValues>
            -7.9440754652023315e-01 2.6862177252769470e-01</leafValues></_>
        <_>
          <internalNodes>
            0 -1 60 -6.1736156931146979e-04</internalNodes>
          <leafValues>
            2.2660747170448303e-01 -7.7674072980880737e-01</leafValues></_>
        <_>
          <internalNodes>
            0 -1 24 4.8800604417920113e-03</internalNodes>
          <leafValues>
            -5.5161964893341064e-01 4.4016698002815247e-01</leafValues></_>
        <_>
          <internalNodes>
            0 -1 26 2.5913314893841743e-03</internalNodes>
          <leafValues>
            2.6111048460006714e-01 -9.6830105781555176e-01</leafValues></_></weakClassifiers></_>
    <!-- stage 8 -->
    <_>
      <maxWeakCount>6</maxWeakCount>
      <stageThreshold>-1.8947126865386963e+00</stageThreshold>
      <weakClassifiers>
        <_>
          <internalNodes>
            0 -1 64 -2.9234826564788818e-02</internalNodes>
          <leafValues>
            -1.0144927352666855e-01 -9.1106516122817993e-01</leafValues></_>
        <_>
          <internalNodes>
            0 -1 2 4.7809751704335213e-03</internalNodes>
          <leafValues>
            -6.7294377088546753e-01 4.4479808211326599e-01</leafValues></_>
        <_>
          <internalNodes>
            0 -1 38 8.7360665202140808e-03</internalNodes>
          <leafValues>
            -7.8519880771636963e-01 2.5879818201065063e-01</leafValues></_>
        <_>
          <internalNodes>
            0 -1 70 4.2270890844520181e-05</internalNodes>
          <leafValues>
            -7.5716614723205566e-01 2.5823053717613220e-01</leafValues></_>
        <_>
          <internalNodes>
            0 -1 14 9.5240976661443710e-03</internalNodes>
          <leafValues>
            -3.1040662527084351e-01 7.2325795888900757e-01</leafValues></_>
        <_>
          <internalNodes>
            0 -1 30 -5.3253379883244634e-04</internalNodes>
          <leafValues>
            5.2667117118835449e-01 -5.0672805309295654e-01</leafValues></_></weakClassifiers></_>
    <!-- stage 9 -->
    <_>
      <maxWeakCount>4</maxWeakCount>
      <stageThreshold>-1.3962662220001221e+00</stageThreshold>
      <weakClassifiers>
        <_>
          <internalNodes>
            0 -1 71 -2.4981435388326645e-02</internalNodes>
          <leafValues>
            4.3478261679410934e-02 -8.8746297359466553e-01</leafValues></_>
        <_>
          <internalNodes>
            0 -1 13 5.2289616316556931e-02</internalNodes>
          <leafValues>
            -7.4337971210479736e-01 2.7678275108337402e-01</leafValues></_>
        <_>
          <internalNodes>
            0 -1 50 -1.1388167331460863e-04</internalNodes>
          <leafValues>
            -8.6890137195587158e-01 2.0752432942390442e-01</leafValues></_>
        <_>
          <internalNodes>
            0 -1 65 1.2942297384142876e-02</internalNodes>
          <leafValues>
            1.7253662645816803e-01 -1.</leafValues></_></weakClassifiers></_>
    <!-- stage 10 -->
    <_>
      <maxWeakCount>6</maxWeakCount>
      <stageThreshold>-1.6731868982315063e+00</stageThreshold>
      <weakClassifiers>
        <_>
          <internalNodes>
            0 -1 74 -2.5406049564480782e-02</internalNodes>
          <leafValues>
            1.8918919563293457e-01 -8.8166826963424683e-01</leafValues></_>
        <_>
          <internalNodes>
            0 -1 18 6.1586755327880383e-04</internalNodes>
          <leafValues>
            -7.8033834695816040e-01 1.5360099077224731e-01</leafValues></_>
        <_>
          <internalNodes>
            0 -1 67 -7.9801719402894378e-04</internalNodes>
          <leafValues>
            -8.9781945943832397e-01 1.9327901303768158e-01</leafValues></_>
        <_>
          <internalNodes>
            0 -1 53 -1.0128241410711780e-04</internalNodes>
          <leafValues>
            3.3197787404060364e-01 -6.6435360908508301e-01</leafValues></_>
        <_>
          <internalNodes>
            0 -1 12 6.0124280862510204e-03</internalNodes>
          <leafValues>
            -6.0865563154220581e-01 3.8886833190917969e-01</leafValues></_>
        <_>
          <internalNodes>
            0 -1 55 -2.9639995191246271e-03</internalNodes>
          <leafValues>
            -9.7208666801452637e-01 2.2937758266925812e-01</leafValues></_></weakClassifiers></_>
    <!-- stage 11 -->
    <_>
      <maxWeakCount>6</maxWeakCount>
      <stageThreshold>-2.2647244930267334e+00</stageThreshold>
      <weakClassifiers>
        <_>
          <internalNodes>
            0 -1 3 2.9518725350499153e-02</internalNodes>
          <leafValues>
            -8.8454014062881470e-01 1.0843373835086823e-01</leafValues></_>
        <_>
          <internalNodes>
            0 -1 10 1.2296088039875031e-01</internalNodes>
          <leafValues>
            -6.9970470666885376e-01 2.9538914561271667e-01</leafValues></_>
        <_>
          <internalNodes>
            0 -1 54 -1.0730301961302757e-02</internalNodes>
          <leafValues>
            6.0139328241348267e-01 -4.4289264082908630e-01</leafValues></_>
        <_>
          <internalNodes>
            0 -1 37 1.0247449390590191e-03</internalNodes>
          <leafValues>
            -6.6172128915786743e-01 3.9785504341125488e-01</leafValues></_>
        <_>
          <internalNodes>
            0 -1 20 -8.6557783652096987e-04</internalNodes>
          <leafValues>
            -9.5211035013198853e-01 2.0949861407279968e-01</leafValues></_>
        <_>
          <internalNodes>
            0 -1 19 2.1789758466184139e-03</internalNodes>
          <leafValues>
            2.1463561058044434e-01 -9.8357796669006348e-01</leafValues></_></weakClassifiers></_>
    <!-- stage 12 -->
    <_>
      <maxWeakCount>5</maxWeakCount>
      <stageThreshold>-1.8086558580398560e+00</stageThreshold>
      <weakClassifiers>
        <_>
          <internalNodes>
            0 -1 72 1.8382273614406586e-02</internalNodes>
          <leafValues>
            -8.8588005304336548e-01 2.9577463865280151e-01</leafValues></_>
        <_>
          <internalNodes>
            0 -1 28 1.3954062014818192e-03</internalNodes>
          <leafValues>
            -7.5934690237045288e-01 2.0534551143646240e-01</leafValues></_>
        <_>
          <internalNodes>
            0 -1 32 1.8917380366474390e-03</internalNodes>
          <leafValues>
            -5.2493774890899658e-01 4.6544805169105530e-01</leafValues></_>
        <_>
          <internalNodes>
            0 -1 66 -1.1097218375653028e-03</internalNodes>
          <leafValues>
            -8.9896523952484131e-01 2.6670560240745544e-01</leafValues></_>
        <_>
          <internalNodes>
            0 -1 41 -4.9637998454272747e-03</internalNodes>
          <leafValues>
            2.9578164219856262e-01 -8.5632395744323730e-01</leafValues></_></weakClassifiers></_>
    <!-- stage 13 -->
    <_>
      <maxWeakCount>5</maxWeakCount>
      <stageThreshold>-1.7766327857971191e+00</stageThreshold>
      <weakClassifiers>
        <_>
          <internalNodes>
            0 -1 76 -2.2438485175371170e-02</internalNodes>
          <leafValues>
            3.5135135054588318e-01 -8.9330744743347168e-01</leafValues></_>
        <_>
          <internalNodes>
            0 -1 46 -5.8297207579016685e-04</internalNodes>
          <leafValues>
            2.3561491072177887e-01 -7.6977258920669556e-01</leafValues></_>
        <_>
          <internalNodes>
            0 -1 73 9.5896627753973007e-03</internalNodes>
          <leafValues>
            1.8570213019847870e-01 -8.5229963064193726e-01</leafValues></_>
        <_>
          <internalNodes>
            0 -1 48 2.4296282790601254e-03</internalNodes>
          <leafValues>
            -4.7925484180450439e-01 4.8799088597297668e-01</leafValues></_>
        <_>
          <internalNodes>
            0 -1 59 1.2324585113674402e-03</internalNodes>
          <leafValues>
            3.5999065637588501e-01 -7.8724569082260132e-01</leafValues></_></weakClassifiers></_>
    <!-- stage 14 -->
    <_>
      <maxWeakCount>6</maxWeakCount>
      <stageThreshold>-2.2139768600463867e+00</stageThreshold>
      <weakClassifiers>
        <_>
          <internalNodes>
            0 -1 68 -1.6623243689537048e-02</internalNodes>
          <leafValues>
            1. -8.7090736627578735e-01</leafValues></_>
        <_>
          <internalNodes>
            0 -1 4 3.6446554586291313e-03</internalNodes>
          <leafValues>
            -7.7487862110137939e-01 4.7323635220527649e-01</leafValues></_>
        <_>
          <internalNodes>
            0 -1 17 -3.5600505769252777e-02</internalNodes>
          <leafValues>
            2.9413673281669617e-01 -8.2018274068832397e-01</leafValues></_>
        <_>
          <internalNodes>
            0 -1 31 -9.5938114100135863e-05</internalNodes>
          <leafValues>
            3.5729515552520752e-01 -6.9596230983734131e-01</leafValues></_>
        <_>
          <internalNodes>
            0 -1 27 7.1475533768534660e-03</internalNodes>
          <leafValues>
            3.2394754886627197e-01 -9.3318635225296021e-01</leafValues></_>
        <_>
          <internalNodes>
            0 -1 77 1.8440100830048323e-03</internalNodes>
          <leafValues>
            -4.9031287431716919e-01 6.7260771989822388e-01</leafValues></_></weakClassifiers></_>
    <!-- stage 15 -->
    <_>
      <maxWeakCount>4</maxWeakCount>
      <stageThreshold>-1.8196876049041748e+00</stageThreshold>
      <weakClassifiers>
        <_>
          <internalNodes>
            0 -1 42 2.3487033322453499e-03</internalNodes>
          <leafValues>
            -9.1570883989334106e-01 1.</leafValues></_>
        <_>
          <internalNodes>
            0 -1 25 2.5525067001581192e-02</internalNodes>
          <leafValues>
            -7.7800756692886353e-01 1.</leafValues></_>
        <_>
          <internalNodes>
            0 -1 39 6.1006878968328238e-04</internalNodes>
          <leafValues>
            -7.0666033029556274e-01 6.3347375392913818e-01</leafValues></_>
        <_>
          <internalNodes>
            0 -1 1 -1.2398021062836051e-03</internalNodes>
          <leafValues>
            5.8068913221359253e-01 -8.0186587572097778e-01</leafValues></_></weakClassifiers></_></stages>
  <features>
    <_>
      <rects>
        <_>
          1 7 6 12 -1.</_>
        <_>
          1 7 3 6 2.</_>
        <_>
          4 13 3 6 2.</_></rects>
      <tilted>0</tilted></_>
    <_>
      <rects>
        <_>
          1 9 2 4 -1.</_>
        <_>
          1 11 2 2 2.</_></rects>
      <tilted>0</tilted></_>
    <_>
      <rects>
        <_>
          1 10 2 5 -1.</_>
        <_>
          2 10 1 5 2.</_></rects>
      <tilted>0</tilted></_>
    <_>
      <rects>
        <_>
          1 11 6 5 -1.</_>
        <_>
          3 11 2 5 3.</_></rects>
      <tilted>0</tilted></_>
    <_>
      <rects>
        <_>
          2 7 2 8 -1.</_>
        <_>
          2 7 1 4 2.</_>
        <_>
          3 11 1 4 2.</_></rects>
      <tilted>0</tilted></_>
    <_>
      <rects>
        <_>
          2 9 9 5 -1.</_>
        <_>
          5 9 3 5 3.</_></rects>
      <tilted>0</tilted></_>
    <_>
      <rects>
        <_>
          2 9 6 10 -1.</_>
        <_>
          2 9 3 5 2.</_>
        <_>
          5 14 3 5 2.</_></rects>
      <tilted>0</tilted></_>
    <_>
      <rects>
        <_>
          2 10 1 2 -1.</_>
        <_>
          2 11 1 1 2.</_></rects>
      <tilted>0</tilted></_>
    <_>
      <rects>
        <_>
          2 16 4 2 -1.</_>
        <_>
          4 16 2 2 2.</_></rects>
      <tilted>0</tilted></_>
    <_>
      <rects>
        <_>
          3 12 9 4 -1.</_>
        <_>
          3 14 9 2 2.</_></rects>
      <tilted>0</tilted></_>
    <_>
      <rects>
        <_>
          3 18 21 5 -1.</_>
        <_>
          10 18 7 5 3.</_></rects>
      <tilted>0</tilted></_>
    <_>
      <rects>
        <_>
          3 19 21 3 -1.</_>
        <_>
          10 19 7 3 3.</_></rects>
      <tilted>0</tilted></_>
    <_>
      <rects>
        <_>
          4 8 12 4 -1.</_>
        <_>
          4 8 6 2 2.</_>
        <_>
          10 10 6 2 2.</_></rects>
      <tilted>0</tilted></_>
    <_>
      <rects>
        <_>
          4 10 4 12 -1.</_>
        <_>
          4 14 4 4 3.</_></rects>
      <tilted>0</tilted></_>
    <_>
      <rects>
        <_>
          5 5 6 2 -1.</_>
        <_>
          7 5 2 2 3.</_></rects>
      <tilted>0</tilted></_>
    <_>
      <rects>
        <_>
          5 6 4 4 -1.</_>
        <_>
          7 6 2 4 2.</_></rects>
      <tilted>0</tilted></_>
    <_>
      <rects>
        <_>
          5 11 3 12 -1.</_>
        <_>
          5 15 3 4 3.</_></rects>
      <tilted>0</tilted></_>
    <_>
      <rects>
        <_>
          5 12 12 12 -1.</_>
        <_>
          5 18 12 6 2.</_></rects>
      <tilted>0</tilted></_>
    <_>
      <rects>
        <_>
          5 19 2 1 -1.</_>
        <_>
          6 19 1 1 2.</_></rects>
      <tilted>0</tilted></_>
    <_>
      <rects>
        <_>
          6 16 3 4 -1.</_>
        <_>
          7 16 1 4 3.</_></rects>
      <tilted>0</tilted></_>
    <_>
      <rects>
        <_>
          6 17 3 4 -1.</_>
        <_>
          7 17 1 4 3.</_></rects>
      <tilted>0</tilted></_>
    <_>
      <rects>
        <_>
          6 18 2 4 -1.</_>
        <_>
          6 20 2 2 2.</_></rects>
      <tilted>0</tilted></_>
    <_>
      <rects>
        <_>
          6 19 10 4 -1.</_>
        <_>
          6 21 10 2 2.</_></rects>
      <tilted>0</tilted></_>
    <_>
      <rects>
        <_>
          6 20 8 3 -1.</_>
        <_>
          10 20 4 3 2.</_></rects>
      <tilted>0</tilted></_>
    <_>
      <rects>
        <_>
          6 21 8 1 -1.</_>
        <_>
          10 21 4 1 2.</_></rects>
      <tilted>0</tilted></_>
    <_>
      <rects>
        <_>
          7 0 6 8 -1.</_>
        <_>
          9 0 2 8 3.</_></rects>
      <tilted>0</tilted></_>
    <_>
      <rects>
        <_>
          7 16 11 2 -1.</_>
        <_>
          7 17 11 1 2.</_></rects>
      <tilted>0</tilted></_>
    <_>
      <rects>
        <_>
          7 17 14 1 -1.</_>
        <_>
          14 17 7 1 2.</_></rects>
      <tilted>0</tilted></_>
    <_>
      <rects>
        <_>
          7 20 2 4 -1.</_>
        <_>
          8 20 1 4 2.</_></rects>
      <tilted>0</tilted></_>
    <_>
      <rects>
        <_>
          8 4 6 6 -1.</_>
        <_>
          10 4 2 6 3.</_></rects>
      <tilted>0</tilted></_>
    <_>
      <rects>
        <_>
          8 5 1 3 -1.</_>
        <_>
          8 6 1 1 3.</_></rects>
      <tilted>0</tilted></_>
    <_>
      <rects>
        <_>
          8 7 1 4 -1.</_>
        <_>
          8 9 1 2 2.</_></rects>
      <tilted>0</tilted></_>
    <_>
      <rects>
        <_>
          8 8 3 3 -1.</_>
        <_>
          9 8 1 3 3.</_></rects>
      <tilted>0</tilted></_>
    <_>
      <rects>
        <_>
          8 8 9 3 -1.</_>
        <_>
          8 9 9 1 3.</_></rects>
      <tilted>0</tilted></_>
    <_>
      <rects>
        <_>
          8 10 4 6 -1.</_>
        <_>
          8 10 2 3 2.</_>
        <_>
          10 13 2 3 2.</_></rects>
      <tilted>0</tilted></_>
    <_>
      <rects>
        <_>
          8 15 1 6 -1.</_>
        <_>
          8 18 1 3 2.</_></rects>
      <tilted>0</tilted></_>
    <_>
      <rects>
        <_>
          9 6 3 6 -1.</_>
        <_>
          9 8 3 2 3.</_></rects>
      <tilted>0</tilted></_>
    <_>
      <rects>
        <_>
          9 13 5 2 -1.</_>
        <_>
          9 14 5 1 2.</_></rects>
      <tilted>0</tilted></_>
    <_>
      <rects>
        <_>
          9 15 5 9 -1.</_>
        <_>
          9 18 5 3 3.</_></rects>
      <tilted>0</tilted></_>
    <_>
      <rects>
        <_>
          9 21 2 2 -1.</_>
        <_>
          10 21 1 2 2.</_></rects>
      <tilted>0</tilted></_>
    <_>
      <rects>
        <_>
          10 11 12 2 -1.</_>
        <_>
          10 11 6 1 2.</_>
        <_>
          16 12 6 1 2.</_></rects>
      <tilted>0</tilted></_>
    <_>
      <rects>
        <_>
          10 11 6 6 -1.</_>
        <_>
          10 13 6 2 3.</_></rects>
      <tilted>0</tilted></_>
    <_>
      <rects>
        <_>
          11 8 2 2 -1.</_>
        <_>
          12 8 1 2 2.</_></rects>
      <tilted>0</tilted></_>
    <_>
      <rects>
        <_>
          11 10 6 14 -1.</_>
        <_>
          11 17 6 7 2.</_></rects>
      <tilted>0</tilted></_>
    <_>
      <rects>
        <_>
          11 11 4 2 -1.</_>
        <_>
          11 12 4 1 2.</_></rects>
      <tilted>0</tilted></_>
    <_>
      <rects>
        <_>
          12 7 3 3 -1.</_>
        <_>
          13 7 1 3 3.</_></rects>
      <tilted>0</tilted></_>
    <_>
      <rects>
        <_>
          12 8 1 2 -1.</_>
        <_>
          12 9 1 1 2.</_></rects>
      <tilted>0</tilted></_>
    <_>
      <rects>
        <_>
          12 8 6 1 -1.</_>
        <_>
          14 8 2 1 3.</_></rects>
      <tilted>0</tilted></_>
    <_>
      <rects>
        <_>
          12 9 3 3 -1.</_>
        <_>
          12 10 3 1 3.</_></rects>
      <tilted>0</tilted></_>
    <_>
      <rects>
        <_>
          12 11 4 6 -1.</_>
        <_>
          12 13 4 2 3.</_></rects>
      <tilted>0</tilted></_>
    <_>
      <rects>
        <_>
          12 16 5 2 -1.</_>
        <_>
          12 17 5 1 2.</_></rects>
      <tilted>0</tilted></_>
    <_>
      <rects>
        <_>
          12 19 4 3 -1.</_>
        <_>
          12 20 4 1 3.</_></rects>
      <tilted>0</tilted></_>
    <_>
      <rects>
        <_>
          12 20 4 4 -1.</_>
        <_>
          12 22 4 2 2.</_></rects>
      <tilted>0</tilted></_>
    <_>
      <rects>
        <_>
          13 4 1 2 -1.</_>
        <_>
          13 5 1 1 2.</_></rects>
      <tilted>0</tilted></_>
    <_>
      <rects>
        <_>
          13 7 6 11 -1.</_>
        <_>
          15 7 2 11 3.</_></rects>
      <tilted>0</tilted></_>
    <_>
      <rects>
        <_>
          13 10 4 6 -1.</_>
        <_>
          15 10 2 6 2.</_></rects>
      <tilted>0</tilted></_>
    <_>
      <rects>
        <_>
          13 12 4 4 -1.</_>
        <_>
          13 12 2 2 2.</_>
        <_>
          15 14 2 2 2.</_></rects>
      <tilted>0</tilted></_>
    <_>
      <rects>
        <_>
          13 16 7 6 -1.</_>
        <_>
          13 18 7 2 3.</_></rects>
      <tilted>0</tilted></_>
    <_>
      <rects>
        <_>
          14 7 9 6 -1.</_>
        <_>
          14 9 9 2 3.</_></rects>
      <tilted>0</tilted></_>
    <_>
      <rects>
        <_>
          14 11 2 4 -1.</_>
        <_>
          15 11 1 4 2.</_></rects>
      <tilted>0</tilted></_>
    <_>
      <rects>
        <_>
          14 12 3 2 -1.</_>
        <_>
          14 13 3 1 2.</_></rects>
      <tilted>0</tilted></_>
    <_>
      <rects>
        <_>
          14 14 2 4 -1.</_>
        <_>
          14 16 2 2 2.</_></rects>
      <tilted>0</tilted></_>
    <_>
      <rects>
        <_>
          14 17 10 5 -1.</_>
        <_>
          19 17 5 5 2.</_></rects>
      <tilted>0</tilted></_>
    <_>
      <rects>
        <_>
          14 21 3 2 -1.</_>
        <_>
          14 22 3 1 2.</_></rects>
      <tilted>0</tilted></_>
    <_>
      <rects>
        <_>
          15 12 6 10 -1.</_>
        <_>
          15 12 3 5 2.</_>
        <_>
          18 17 3 5 2.</_></rects>
      <tilted>0</tilted></_>
    <_>
      <rects>
        <_>
          16 7 2 14 -1.</_>
        <_>
          16 14 2 7 2.</_></rects>
      <tilted>0</tilted></_>
    <_>
      <rects>
        <_>
          16 9 1 10 -1.</_>
        <_>
          16 14 1 5 2.</_></rects>
      <tilted>0</tilted></_>
    <_>
      <rects>
        <_>
          16 11 1 8 -1.</_>
        <_>
          16 15 1 4 2.</_></rects>
      <tilted>0</tilted></_>
    <_>
      <rects>
        <_>
          16 16 6 2 -1.</_>
        <_>
          19 16 3 2 2.</_></rects>
      <tilted>0</tilted></_>
    <_>
      <rects>
        <_>
          17 6 6 12 -1.</_>
        <_>
          17 6 3 6 2.</_>
        <_>
          20 12 3 6 2.</_></rects>
      <tilted>0</tilted></_>
    <_>
      <rects>
        <_>
          17 15 1 2 -1.</_>
        <_>
          17 16 1 1 2.</_></rects>
      <tilted>0</tilted></_>
    <_>
      <rects>
        <_>
          18 8 4 10 -1.</_>
        <_>
          18 8 2 5 2.</_>
        <_>
          20 13 2 5 2.</_></rects>
      <tilted>0</tilted></_>
    <_>
      <rects>
        <_>
          18 9 6 3 -1.</_>
        <_>
          20 9 2 3 3.</_></rects>
      <tilted>0</tilted></_>
    <_>
      <rects>
        <_>
          18 15 5 9 -1.</_>
        <_>
          18 18 5 3 3.</_></rects>
      <tilted>0</tilted></_>
    <_>
      <rects>
        <_>
          19 5 4 10 -1.</_>
        <_>
          19 5 2 5 2.</_>
        <_>
          21 10 2 5 2.</_></rects>
      <tilted>0</tilted></_>
    <_>
      <rects>
        <_>
          19 7 4 8 -1.</_>
        <_>
          19 7 2 4 2.</_>
        <_>
          21 11 2 4 2.</_></rects>
      <tilted>0</tilted></_>
    <_>
      <rects>
        <_>
          20 3 4 12 -1.</_>
        <_>
          20 3 2 6 2.</_>
        <_>
          22 9 2 6 2.</_></rects>
      <tilted>0</tilted></_>
    <_>
      <rects>
        <_>
          21 0 2 10 -1.</_>
        <_>
          21 0 1 5 2.</_>
        <_>
          22 5 1 5 2.</_></rects>
      <tilted>0</tilted></_></features></cascade>
</opencv_storage>
